G,0.11019372,-0.08617456,-0.10393068,-0.081886165,0.1124752,-0.35756123,0.04664947,-0.32699603,0.062281784,0.06373044,-0.041757848,0.0030824097,0.016197596,-0.11796902,-0.033962645,0.045078196,0.04331047,-0.059686475,0.027247151,0.08641891,0.12116513,0.034070462,0.017485617,-0.0963981,0.15007834,0.11955675,-0.11881411,0.2353256,0.04646807,0.14195904,-0.08736465,0.018916396,-0.18495265,-0.027307285,-0.19911104,-0.08858894,0.116932355,-0.247182,0.09328101,-0.2792334,0.052615445,0.17053477,0.205676,0.0077221096,0.2516743,-0.088809855,-0.27998003,-0.09138496,-0.1411568,0.062129103,-0.043619294,0.016809752,0.25459418,0.048745602,-0.18223454,-0.003243667,-0.015414042,-0.08232732,-0.028047241,0.0854973,-0.010735954,0.072496496,0.05598493,-0.0033164925
C,0.07904212,-0.13986836,-0.12065456,-0.083969146,0.12810847,-0.39237443,0.05974269,-0.34165427,0.065625526,0.07992812,-0.01833203,0.014071693,0.099439375,-0.06545021,0.03395717,0.07794782,-0.02889189,-0.0736086,0.103927016,-0.0063851667,0.12186118,0.047423225,-0.035933062,-0.113579825,0.08703237,-0.010352005,-0.1390129,0.20504084,0.08115453,0.13040914,0.0042407075,0.100541465,-0.11888708,-0.11471781,-0.19499925,-0.062316887,0.045443114,-0.18572816,0.06882812,-0.29947856,0.03283521,0.18246397,0.19748916,-0.0329016,0.25273868,-0.18838939,-0.30048737,-0.14668995,-0.1895136,0.007917722,-0.03808035,0.0054517477,0.22877102,0.07984451,-0.1247148,0.07188831,0.04713914,-0.12549776,-0.064563654,-0.0024412123,-0.053991836,0.03894802,0.050183736,-0.026500292
A,0.09741732,-0.11499199,-0.10607017,-0.0809556,0.110312246,-0.37341815,0.05925841,-0.33303553,0.05834355,0.07642526,-0.021771321,0.016739376,0.05760085,-0.0887981,0.0011241136,0.057664316,0.015255248,-0.063326925,0.0641116,0.053582348,0.120236516,0.03720009,-0.0077477554,-0.10362041,0.12509403,0.07116011,-0.13084188,0.22184187,0.06393825,0.13155645,-0.05548233,0.052810404,-0.15679017,-0.06293253,-0.1947436,-0.06958409,0.080893084,-0.22208223,0.07292276,-0.28924653,0.04493179,0.16941185,0.20380339,-0.0069294316,0.24862781,-0.12219055,-0.28970638,-0.11836271,-0.15208328,0.03277712,-0.048470438,0.008319835,0.24550629,0.059360705,-0.15553431,0.024642602,0.011553128,-0.09922521,-0.04886915,0.0440349,-0.021397412,0.06638628,0.052439302,-0.013482192
U,0.09516313,-0.12371845,-0.10444246,-0.08833862,0.12963638,-0.38296714,0.054714154,-0.33037478,0.053200692,0.06960204,-0.012622686,0.021660782,0.09152079,-0.06272476,0.024736553,0.075121686,-0.013273412,-0.07467893,0.08847239,0.010399614,0.13191159,0.038997434,-0.018794501,-0.09811262,0.096086875,0.014681004,-0.13702756,0.1993131,0.07507731,0.12144391,-0.010672228,0.0842255,-0.13155675,-0.100775026,-0.19145162,-0.07472715,0.051198717,-0.1949303,0.061437655,-0.2917062,0.039422717,0.18059036,0.19536345,-0.02961445,0.2421629,-0.16818611,-0.3033172,-0.13380985,-0.17385499,0.01185123,-0.03729887,-0.0031319144,0.23520508,0.08194059,-0.13254099,0.057172686,0.029706722,-0.11674222,-0.05828768,0.008647715,-0.050027996,0.056853104,0.0481786,-0.022447316
