U,-0.12538312,-0.0050009424,-0.119723886,0.30815297,0.030692609,0.07480194,-0.025948599,-0.12843715,0.06720183,-0.25629818,-0.06356186,-0.32123473,0.047323678,0.074096985,0.023339454,-0.13062944,0.082869016,-0.07556971,0.0077213612,0.07658408,-0.07045807,0.08876548,-0.052130137,0.045966174,-0.006612367,0.087052785,0.23421499,-0.07198372,-0.1791958,0.0034343475,-0.17384931,-0.09781414,-0.15244801,-0.07215505,-0.05267505,-0.06928642,-0.08194516,0.1477751,0.08582389,0.06883915,0.10189503,0.040872894,-0.024883103,-0.030003594,-0.29950374,-0.14408945,-0.09948801,0.042063095,0.008447794,-0.02019047,-0.31757078,-0.13078536,0.044590034,-0.06599975,-0.055223744,0.08582441,-0.04636098,-0.08983188,-0.0718557,0.3348424,0.23268582,0.16692309,-0.00048183417,-8.878749e-05
G,-0.08235064,-0.0044226893,-0.1447177,0.2979833,0.03336627,0.080047525,-0.056853063,-0.17477524,0.06681893,-0.26683706,-0.082805894,-0.31718054,0.01820545,0.105949305,0.028301075,-0.09798027,0.097813606,-0.112784915,0.05590061,0.07964,-0.10024803,0.10752936,-0.044492505,0.036479816,-0.049428113,0.08127191,0.20113374,-0.08450237,-0.16210105,-0.023309205,-0.16862385,-0.090441264,-0.13166986,-0.13735868,-0.12726194,-0.048045505,-0.11926197,0.12825869,0.061144855,0.10661396,0.072556034,-0.018509207,-0.016548576,0.014599927,-0.28072312,-0.12347971,-0.08174322,0.05210064,-0.030265745,-0.017628305,-0.31411806,-0.16354913,0.095401265,-0.027484048,-0.048886936,0.13126937,-0.05218951,-0.08584955,-0.06770312,0.31284258,0.24173671,0.10878931,-0.0061364644,-0.058057398
A,-0.10500777,-0.012702919,-0.13277496,0.31047586,0.024397884,0.075840294,-0.04333093,-0.16664273,0.07162503,-0.26661155,-0.066687,-0.31651384,0.023874825,0.10342,0.015821207,-0.11982454,0.101487346,-0.09965066,0.035438363,0.07828095,-0.08147785,0.097055115,-0.046351,0.032947063,-0.028302757,0.09022821,0.20887753,-0.079360336,-0.15714376,-0.010202102,-0.16093788,-0.08471737,-0.15306006,-0.118647486,-0.10812804,-0.05600073,-0.10634972,0.14760983,0.06900744,0.099699035,0.07924862,-0.005328237,-0.030482704,-0.010207956,-0.2992983,-0.14198062,-0.08910719,0.048444018,-0.012117247,-0.026193013,-0.32525524,-0.15604386,0.08051921,-0.04864794,-0.045621857,0.117547244,-0.05652008,-0.08944428,-0.06529644,0.3402247,0.2490229,0.13532907,-0.006445635,-0.032181818
C,-0.13218184,-0.01599291,-0.09574065,0.2951762,0.03162873,0.05717746,-0.008375282,-0.10671574,0.061639026,-0.24871421,-0.05669177,-0.31255704,0.042376403,0.0611792,0.037213977,-0.13874876,0.082077876,-0.076270364,0.0029736434,0.06696299,-0.05176378,0.097266056,-0.056581367,0.038106408,0.0008836341,0.09220084,0.23777044,-0.081445195,-0.17557032,0.016992593,-0.16882314,-0.104297385,-0.15509494,-0.05671607,-0.039805643,-0.07220537,-0.079840906,0.1461022,0.08210773,0.059170995,0.113427125,0.051489368,-0.034816504,-0.041263185,-0.31621987,-0.15939313,-0.11514544,0.028937751,0.019333467,-0.023215365,-0.32234475,-0.11531522,0.0365802,-0.067240715,-0.07318167,0.07555517,-0.055949215,-0.099149294,-0.08569937,0.35458347,0.23603499,0.18388364,-0.003260629,0.017668545
