G,0.103643574,0.03785863,-0.3872225,-0.3159473,-0.5742004,-0.10053998,0.1495157,0.2519619,-0.030185286,0.004989882,0.015274349,-0.03233706,-0.0012306725,0.0008909949,0.0010926881,-0.0010664259,0.19564623,0.14856203,-0.20958419,-0.4456624,0.09316064,-0.17609188,0.018028146,0.13094921,-0.0012302863,0.00043032214,0.0009315297,-0.0001891334,-0.00575044,9.0532696e-05,-0.0041496293,0.0063470225,0.06288509,-0.010328137,0.04231281,-0.029612271,0.29302597,0.5889618,0.09381755,0.16275665,0.0069772005,0.002339806,0.011799734,-0.02804611,-0.01648172,0.08643843,0.016631646,-0.076572634,-0.0012324067,0.000552629,-0.0016085535,0.002434932,0.122064255,-0.056243654,-0.15582713,-0.11695758,-0.035612766,0.0026063723,0.11772065,-0.092805065,0.0869751,0.021733608,-0.06481743,-0.54484487
C,0.13940051,0.053468175,-0.42381167,-0.3568273,-0.6312159,-0.13065445,0.12614164,0.27734363,-0.009295968,0.0015334289,0.0046934015,-0.009935698,-0.005157801,0.0037594212,0.0045634145,-0.0044855364,0.110495545,0.083885975,-0.11837871,-0.2517169,0.087216824,-0.16500652,0.016885493,0.12274739,-0.0017748452,0.0006201889,0.0013439207,-0.00027249692,0.0028285864,-4.3386517e-05,0.0021185067,-0.0030045095,0.049958333,-0.008204873,0.033608414,-0.023521027,0.2955604,0.5938183,0.09465413,0.16413736,-0.0021914209,-0.0007509847,-0.0038049372,0.008457331,-0.026426397,0.13860244,0.026672076,-0.12281024,-0.0010709865,0.00048012222,-0.0013998891,0.0021217524,0.063754335,-0.029396549,-0.0813773,-0.061063983,-0.015625296,0.001142857,0.05166983,-0.04077795,0.07888865,0.019712856,-0.058798894,-0.49417958
T,0.036414087,0.0070981225,-0.38648337,-0.28756595,-0.6176681,-0.14673735,0.08761382,0.27174366,-0.0041516526,0.0006823373,0.0020850308,-0.004417288,-0.005945188,0.004334433,0.005259107,-0.005171022,0.08915676,0.06768716,-0.09552976,-0.20310847,0.08520633,-0.16121377,0.016495813,0.11993029,-0.0020711203,0.00072370307,0.001568242,-0.00031800967,0.0030898494,-4.7341953e-05,0.0023181697,-0.0032762531,0.054357864,-0.008926382,0.03656749,-0.025590934,0.31427166,0.631372,0.100648776,0.17452829,-0.0023311162,-0.0007993937,-0.004050797,0.008982999,-0.029674789,0.15563637,0.02995073,-0.13790283,-0.0011668758,0.0005230883,-0.0015251645,0.0023115359,0.074236065,-0.03422684,-0.094762616,-0.07110375,-0.02117912,0.0015491353,0.070024505,-0.055259824,0.09299069,0.023236869,-0.069305316,-0.58250874
A,0.04569002,0.012234699,-0.34861502,-0.26470998,-0.47603247,-0.10342639,0.08592444,0.209238,-0.00065187865,0.00010168175,0.0002828812,-0.0006541681,-0.004359648,0.0031749413,0.003858463,-0.0037897069,0.17291196,0.13128096,-0.18522419,-0.39387134,0.09668775,-0.18273121,0.018702624,0.1358587,-0.0021418193,0.00074876996,0.0016217262,-0.00032905434,-0.0038021198,6.057305e-05,-0.00269227,0.004273141,0.08169013,-0.013413944,0.05495647,-0.03846081,0.3613485,0.72596806,0.11570094,0.20067346,0.004139916,0.0013864764,0.006989698,-0.016690752,-0.015718156,0.08245277,0.015864655,-0.07305421,-0.00070226967,0.00031488354,-0.0009161899,0.0013871836,0.06808028,-0.031370346,-0.08692231,-0.065215625,-0.023613181,0.0017278653,0.078059606,-0.061570764,0.07417978,0.01853483,-0.05528427,-0.4646829
