G,-0.449295,0.31707785,1.7249845,-0.35225606,0.045842253,-0.020662233,-0.12404586,0.025510773,0.012425521,-0.18784243,0.12372542,-0.015763637,-0.0069566616,-0.0024728763,0.0074349414,0.0028776864,0.040979546,-0.013648,0.011716962,0.014888528,0.04266928,-0.03607021,0.028173367,0.06342489,-0.029432299,-0.01712617,0.009925399,0.046357375,-0.00066818035,0.0004962278,-0.013824149,-0.011543722,0.14827098,-0.12240858,-0.16800457,-0.22478405,-0.002382805,0.0006822299,0.00021017324,0.0024327326,0.009357173,-0.10595599,-0.010411891,-0.067015685,0.2599942,0.062768854,0.07547143,0.010108642,0.00029651518,-0.0014373778,0.0026809624,0.0024539737,-0.006143285,-0.008698045,0.0028987615,0.007485355,-0.018450523,-0.010962317,-0.007705989,-0.006376149,0.003321735,-0.00033579025,0.0025153845,-0.0009829114
C,-0.44389978,0.3109495,1.6987997,-0.34827304,0.020109007,-0.009067781,-0.054372936,0.011198094,0.009464433,-0.14307885,0.09423132,-0.012006375,-0.0050155735,-0.0017832769,0.0053636404,0.0020762486,-0.059315942,0.020139188,-0.017354159,-0.02223684,0.05864412,-0.04955617,0.038703155,0.08715142,-0.03827323,-0.022272011,0.012906874,0.060282663,-0.0008828559,0.00065563025,-0.018264288,-0.0152516505,0.14925626,-0.12322013,-0.16922763,-0.22638029,-0.0005703626,0.0001631217,5.0220864e-05,0.0005825408,0.0032899242,-0.037200104,-0.0036676254,-0.023524836,0.44614634,0.107428946,0.12989756,0.017319221,0.007383948,-0.03393525,0.058985647,0.05328954,-0.05674964,-0.08041053,0.026814194,0.069215566,-0.13064492,-0.0775859,-0.054558992,-0.04514919,0.09676655,-0.009776382,0.07325371,-0.028624758
T,-0.47202986,0.327231,1.7985811,-0.37071532,-0.013507009,0.006085756,0.03659063,-0.007509867,-0.0004465097,0.0067556403,-0.004447688,0.0005672606,0.0010299254,0.00036623358,-0.0011004674,-0.00042591733,-0.06752523,0.02278219,-0.019608952,-0.025061963,-0.0041699265,0.0035306758,-0.0027616434,-0.006208985,-0.0066117775,-0.0038491106,0.0022293054,0.010414871,-0.00012794322,9.5016185e-05,-0.0026449356,-0.0022093512,0.025982738,-0.021449972,-0.029538015,-0.03948553,0.0028280867,-0.00081005396,-0.0002495458,-0.0028871002,-0.0081282975,0.09207956,0.009039223,0.058239628,0.09183631,0.021939661,0.026986407,0.0035480768,0.0059009115,-0.027036702,0.046762772,0.042207126,-0.06740745,-0.09537626,0.031837374,0.081993125,-0.044293605,-0.026253723,-0.018497301,-0.015311366,0.018231947,-0.0018416478,0.013799224,-0.005392427
A,-0.4648517,0.32292005,1.7727625,-0.3649691,0.016100554,-0.0072558015,-0.04359447,0.008955566,0.0036980384,-0.05591151,0.03682636,-0.0046923566,-0.0033402913,-0.0011877788,0.0035723783,0.0013827946,-0.011720855,0.0040245987,-0.0034879243,-0.004495199,0.0011729347,-0.0009925199,0.0007786452,0.0017489305,-0.002524724,-0.0014690295,0.0008517735,0.003976829,-9.170674e-05,6.808546e-05,-0.0018980422,-0.0015846412,0.07055929,-0.05824958,-0.07988527,-0.106910326,-0.0012395884,0.0003550785,0.000109365305,0.0012656021,0.007080916,-0.08018292,-0.007877643,-0.050715715,0.09559997,0.023133658,0.027672958,0.0037224519,-0.0012558299,0.005720636,-0.009788864,-0.008819261,0.068383776,0.09670996,-0.032296017,-0.08311775,0.010940233,0.006430781,0.0045669274,0.003783491,0.0031407438,-0.00031757535,0.0023823518,-0.00093088567
