U,-0.13457897,-0.060247857,0.2236446,-0.0027640543,0.103843845,0.00092964625,0.10283998,-0.0062127616,-0.14476793,-0.19242208,-0.024815094,0.033426926,-0.022427198,-0.08817581,0.020515129,0.15671258,-0.029014423,0.22049478,-0.1352676,0.05255088,-0.0617095,-0.06753538,-0.02381353,0.16952625,-0.21201408,-0.056890268,0.072271064,0.01774041,0.09200369,0.10928698,-0.16292706,0.0913527,-0.26166794,-0.04451136,0.0016345428,-0.006930853,-0.17909631,-0.17610905,0.15450393,-0.040884312,-0.23804632,0.18810785,-0.09553614,0.030555353,-0.33101228,-0.19474117,0.03578264,-0.048194315,0.08265488,-0.13632527,0.29761305,-0.14838281,-0.2807538,0.06979798,0.08788607,-0.029276704,-0.08336982,-0.16209742,0.11106222,-0.16326448,-0.026613431,-0.0840388,-0.1199008,0.013380538
G,-0.15963668,-0.049475107,0.20791334,0.033055503,0.093807094,-0.025075054,0.11684575,-0.035593677,-0.17885603,-0.16132273,-0.010118526,0.02079304,-0.039178062,-0.08619799,0.043544997,0.14024545,-0.0062236194,0.21068737,-0.121427774,0.07082058,-0.0880396,-0.087801725,-0.044046853,0.13462284,-0.21394971,-0.08750199,0.05970859,-0.017490858,0.11249595,0.12826411,-0.16585226,0.07536198,-0.26359934,-0.026850052,0.002294599,-0.03360253,-0.16740191,-0.18148208,0.16502382,-0.03860306,-0.26162294,0.16241995,-0.09623599,0.02033366,-0.33066565,-0.19961712,0.07485247,-0.03356781,0.07361274,-0.1743043,0.30755243,-0.10471208,-0.29901883,0.07669109,0.045269884,-0.009773904,-0.043174706,-0.17466313,0.12181983,-0.15990287,-0.032158013,-0.10853464,-0.12645476,0.04268913
A,-0.14849272,-0.049055964,0.22594482,0.0016217013,0.09888284,-0.005200611,0.11143268,-0.010520121,-0.15611897,-0.17992026,-0.02977915,0.03721733,-0.024205927,-0.09788468,0.020894354,0.15417889,-0.030403,0.21419974,-0.13594021,0.050675463,-0.06265552,-0.07714959,-0.028729118,0.16341048,-0.21656555,-0.06987229,0.07630127,0.014716826,0.09654165,0.121285,-0.16405368,0.09659431,-0.26072386,-0.04016891,-0.004329569,-0.019863945,-0.17592049,-0.1723999,0.15814036,-0.042031515,-0.24242976,0.18795347,-0.09336711,0.018799908,-0.32566208,-0.19882004,0.05232219,-0.03804209,0.070427634,-0.14837033,0.3037058,-0.14500567,-0.28562555,0.06705526,0.08278964,-0.030438725,-0.07209833,-0.16771989,0.11145892,-0.15401739,-0.030469505,-0.08681313,-0.1210157,0.020205297
C,-0.1373601,-0.062299076,0.23102377,-0.00828609,0.10938122,0.007605096,0.109866835,-0.001622024,-0.13068198,-0.2051207,-0.039136153,0.051557723,-0.007414851,-0.10180861,0.023532452,0.16457842,-0.035325903,0.22295007,-0.14666344,0.04353598,-0.044857714,-0.07015891,-0.020112814,0.1771453,-0.22004323,-0.05211522,0.084767744,0.03200237,0.081271626,0.110522114,-0.1712803,0.10627036,-0.24938358,-0.05171901,-0.01254972,-0.006635226,-0.17229946,-0.16708896,0.16184881,-0.041851413,-0.21840714,0.20334376,-0.081160985,0.026921136,-0.33153686,-0.1987817,0.028208049,-0.045878794,0.087402135,-0.115754575,0.30066985,-0.1674811,-0.2670161,0.057253696,0.11025835,-0.04158912,-0.1017674,-0.1637669,0.10751499,-0.17107573,-0.029459927,-0.08749076,-0.129635,0.0029115176
