T,0.33210433,0.18956433,0.73194504,-1.1029729,-0.00961563,-0.0102926,0.01397549,0.022322558,0.003182341,-0.06201862,0.060944527,0.025844492,-0.023085458,0.0027207145,-0.006246495,-0.00083198637,0.22027713,-0.18229616,0.05213002,-0.09582867,0.0020784265,-0.0038497816,0.0011543345,-0.000859076,0.00022685138,-0.000100533216,-4.9541723e-06,0.00017358288,-0.1733472,-0.1028883,0.016908456,0.048416167,0.00029628215,0.0076508177,-0.001979437,0.006665889,-0.00071758963,-0.00032882058,0.0014135492,0.00073984376,-0.12612538,0.09264644,0.010452521,0.06435677,-0.0041638254,-0.00066100224,-0.0008652315,-0.005529481,0.042150285,0.049344953,0.028729117,-0.011599038,-0.0031141783,0.023217632,0.015780494,-0.024188679,-0.012587886,0.0030198768,0.004743385,-0.007064744,-0.075863354,0.07802415,0.0038896902,0.07061088
G,0.30542865,0.18885818,0.7010885,-1.1053132,-0.025359573,-0.027093425,0.03689559,0.058896087,-0.0019071967,0.03716234,-0.036534917,-0.015498643,-0.0044208453,0.00052186137,-0.001196109,-0.00016029195,0.29982516,-0.24751036,0.07082912,-0.13041787,0.03207215,-0.059509978,0.01790164,-0.013317487,-0.1407259,0.081556536,0.0036197333,-0.122865714,0.079052076,0.046916638,-0.007715165,-0.022095667,-0.0019528897,-0.05020619,0.013001627,-0.04372944,-0.006364646,-0.0029337888,0.012546509,0.0065911678,-0.093540415,0.06863927,0.0077456627,0.047669362,-0.028644139,-0.004571398,-0.0059430962,-0.03788882,0.0071739075,0.008366718,0.0047825566,-0.0019419586,0.00806351,-0.06012344,-0.04086604,0.06265286,0.048557542,-0.011647775,-0.018304383,0.027243217,0.050394736,-0.051789604,-0.0025812741,-0.047199562
A,0.33901772,0.1964869,0.7528538,-1.1449122,-0.025897458,-0.027656222,0.03763419,0.060053706,-0.00048293962,0.0094008595,-0.009248618,-0.003926539,-0.004662798,0.0005501538,-0.0012618954,-0.00016850827,0.09725711,-0.080470726,0.023006268,-0.0423069,0.0069802804,-0.012952001,0.003896338,-0.0028985408,-0.03353371,0.019436419,0.00086257973,-0.029279614,0.025000012,0.014835647,-0.0024398365,-0.0069857193,0.00018870551,0.0047988608,-0.0012425045,0.00418207,0.0010996425,0.0005054536,-0.0021630945,-0.0011350721,-0.009128601,0.006679905,0.0007535905,0.00463808,-0.0048923264,-0.0007813156,-0.0010143066,-0.0064644744,-0.018926345,-0.022158146,-0.012927273,0.005217393,0.0037580768,-0.028021034,-0.01904372,0.029196814,0.023188183,-0.005563203,-0.008742023,0.013012731,0.049544804,-0.050933875,-0.0025387409,-0.046309028
C,0.29508114,0.185858,0.6839419,-1.0892749,-0.038888313,-0.041538943,0.056537095,0.090234876,-0.00108285,0.021082042,-0.020747855,-0.008804427,-0.013430246,0.001584512,-0.0036348982,-0.00048535984,0.3031256,-0.25063595,0.07168411,-0.13187054,0.02451873,-0.045491286,0.013683743,-0.010179434,-0.10839402,0.062829725,0.0027881486,-0.094637625,-0.011314121,-0.0067195063,0.0010998859,0.0031507104,-0.0012356845,-0.031772878,0.008229583,-0.027673472,-0.00310951,-0.001433714,0.0061382796,0.003222459,-0.25485867,0.18707353,0.021106916,0.12994051,-0.04752668,-0.00758283,-0.009862118,-0.06288161,0.08321645,0.09735228,0.05658298,-0.022860346,0.009656911,-0.07200893,-0.048935886,0.07503977,0.06945946,-0.016663834,-0.02619037,0.03897057,0.023342222,-0.02389464,-0.0011899736,-0.02266267
